digraph Tree {
node [shape=box, style="rounded", color="black", fontname=helvetica] ;
edge [fontname=helvetica] ;
0 [label="AREA <= 0.4\nmse = 0.9\nsamples = 133\nvalue = -0.0"] ;
1 [label="AREA <= -0.2\nmse = 0.0\nsamples = 104\nvalue = -0.5"] ;
0 -> 1 [labeldistance=2.5, labelangle=45, headlabel="True"] ;
2 [label="AREA <= -0.3\nmse = 0.0\nsamples = 96\nvalue = -0.5"] ;
1 -> 2 ;
3 [label="mse = 0.0\nsamples = 90\nvalue = -0.5"] ;
2 -> 3 ;
4 [label="mse = 0.0\nsamples = 6\nvalue = -0.4"] ;
2 -> 4 ;
5 [label="GROUND_WATERLEVEL <= -0.6\nmse = 0.1\nsamples = 8\nvalue = -0.0"] ;
1 -> 5 ;
6 [label="mse = 0.0\nsamples = 2\nvalue = 0.4"] ;
5 -> 6 ;
7 [label="mse = 0.1\nsamples = 6\nvalue = -0.2"] ;
5 -> 7 ;
8 [label="AREA <= 1.4\nmse = 0.6\nsamples = 29\nvalue = 1.6"] ;
0 -> 8 [labeldistance=2.5, labelangle=-45, headlabel="False"] ;
9 [label="GROUND_WATERLEVEL <= -0.7\nmse = 0.1\nsamples = 13\nvalue = 1.0"] ;
8 -> 9 ;
10 [label="mse = 0.0\nsamples = 3\nvalue = 1.3"] ;
9 -> 10 ;
11 [label="mse = 0.1\nsamples = 10\nvalue = 0.8"] ;
9 -> 11 ;
12 [label="HUMIDITY <= -0.9\nmse = 0.4\nsamples = 16\nvalue = 2.1"] ;
8 -> 12 ;
13 [label="mse = 0.0\nsamples = 1\nvalue = 4.2"] ;
12 -> 13 ;
14 [label="mse = 0.3\nsamples = 15\nvalue = 2.0"] ;
12 -> 14 ;
}