digraph Tree {
node [shape=box, style="rounded", color="black", fontname=helvetica] ;
edge [fontname=helvetica] ;
0 [label="AREA <= 0.3\nmse = 0.9\nsamples = 131\nvalue = -0.0"] ;
1 [label="AREA <= -0.0\nmse = 0.1\nsamples = 105\nvalue = -0.5"] ;
0 -> 1 [labeldistance=2.5, labelangle=45, headlabel="True"] ;
2 [label="AREA <= -0.4\nmse = 0.0\nsamples = 95\nvalue = -0.5"] ;
1 -> 2 ;
3 [label="AREA <= -0.5\nmse = 0.0\nsamples = 82\nvalue = -0.5"] ;
2 -> 3 ;
4 [label="AREA <= -0.6\nmse = 0.0\nsamples = 71\nvalue = -0.5"] ;
3 -> 4 ;
5 [label="AREA <= -0.6\nmse = 0.0\nsamples = 18\nvalue = -0.5"] ;
4 -> 5 ;
6 [label="AREA <= -0.6\nmse = 0.0\nsamples = 8\nvalue = -0.5"] ;
5 -> 6 ;
7 [label="GROUND_WATERLEVEL <= 0.7\nmse = 0.0\nsamples = 5\nvalue = -0.5"] ;
6 -> 7 ;
8 [label="AVG_TEMPERATURE <= -0.8\nmse = 0.0\nsamples = 4\nvalue = -0.5"] ;
7 -> 8 ;
9 [label="mse = 0.0\nsamples = 1\nvalue = -0.5"] ;
8 -> 9 ;
10 [label="mse = 0.0\nsamples = 3\nvalue = -0.5"] ;
8 -> 10 ;
11 [label="mse = 0.0\nsamples = 1\nvalue = -0.5"] ;
7 -> 11 ;
12 [label="HUMIDITY <= 1.5\nmse = 0.0\nsamples = 3\nvalue = -0.5"] ;
6 -> 12 ;
13 [label="RAINFALL <= 1.1\nmse = 0.0\nsamples = 2\nvalue = -0.5"] ;
12 -> 13 ;
14 [label="mse = 0.0\nsamples = 1\nvalue = -0.5"] ;
13 -> 14 ;
15 [label="mse = 0.0\nsamples = 1\nvalue = -0.5"] ;
13 -> 15 ;
16 [label="mse = -0.0\nsamples = 1\nvalue = -0.5"] ;
12 -> 16 ;
17 [label="RAINFALL <= 0.3\nmse = 0.0\nsamples = 10\nvalue = -0.5"] ;
5 -> 17 ;
18 [label="mse = 0.0\nsamples = 1\nvalue = -0.5"] ;
17 -> 18 ;
19 [label="HUMIDITY <= 1.5\nmse = 0.0\nsamples = 9\nvalue = -0.5"] ;
17 -> 19 ;
20 [label="mse = 0.0\nsamples = 8\nvalue = -0.5"] ;
19 -> 20 ;
21 [label="mse = -0.0\nsamples = 1\nvalue = -0.5"] ;
19 -> 21 ;
22 [label="AREA <= -0.6\nmse = 0.0\nsamples = 53\nvalue = -0.5"] ;
4 -> 22 ;
23 [label="AREA <= -0.6\nmse = 0.0\nsamples = 16\nvalue = -0.5"] ;
22 -> 23 ;
24 [label="GROUND_WATERLEVEL <= 0.0\nmse = 0.0\nsamples = 12\nvalue = -0.5"] ;
23 -> 24 ;
25 [label="AREA <= -0.6\nmse = 0.0\nsamples = 6\nvalue = -0.5"] ;
24 -> 25 ;
26 [label="mse = 0.0\nsamples = 1\nvalue = -0.5"] ;
25 -> 26 ;
27 [label="RAINFALL <= -1.0\nmse = 0.0\nsamples = 5\nvalue = -0.5"] ;
25 -> 27 ;
28 [label="AREA <= -0.6\nmse = 0.0\nsamples = 2\nvalue = -0.5"] ;
27 -> 28 ;
29 [label="mse = 0.0\nsamples = 1\nvalue = -0.5"] ;
28 -> 29 ;
30 [label="mse = -0.0\nsamples = 1\nvalue = -0.5"] ;
28 -> 30 ;
31 [label="GROUND_WATERLEVEL <= -0.5\nmse = 0.0\nsamples = 3\nvalue = -0.5"] ;
27 -> 31 ;
32 [label="mse = 0.0\nsamples = 1\nvalue = -0.5"] ;
31 -> 32 ;
33 [label="AREA <= -0.6\nmse = 0.0\nsamples = 2\nvalue = -0.5"] ;
31 -> 33 ;
34 [label="mse = 0.0\nsamples = 1\nvalue = -0.5"] ;
33 -> 34 ;
35 [label="mse = 0.0\nsamples = 1\nvalue = -0.5"] ;
33 -> 35 ;
36 [label="AREA <= -0.6\nmse = 0.0\nsamples = 6\nvalue = -0.5"] ;
24 -> 36 ;
37 [label="AREA <= -0.6\nmse = 0.0\nsamples = 4\nvalue = -0.5"] ;
36 -> 37 ;
38 [label="AREA <= -0.6\nmse = 0.0\nsamples = 3\nvalue = -0.5"] ;
37 -> 38 ;
39 [label="AREA <= -0.6\nmse = 0.0\nsamples = 2\nvalue = -0.5"] ;
38 -> 39 ;
40 [label="mse = 0.0\nsamples = 1\nvalue = -0.5"] ;
39 -> 40 ;
41 [label="mse = 0.0\nsamples = 1\nvalue = -0.5"] ;
39 -> 41 ;
42 [label="mse = -0.0\nsamples = 1\nvalue = -0.5"] ;
38 -> 42 ;
43 [label="mse = 0.0\nsamples = 1\nvalue = -0.5"] ;
37 -> 43 ;
44 [label="HUMIDITY <= -1.1\nmse = 0.0\nsamples = 2\nvalue = -0.5"] ;
36 -> 44 ;
45 [label="mse = 0.0\nsamples = 1\nvalue = -0.5"] ;
44 -> 45 ;
46 [label="mse = -0.0\nsamples = 1\nvalue = -0.5"] ;
44 -> 46 ;
47 [label="GROUND_WATERLEVEL <= 0.6\nmse = 0.0\nsamples = 4\nvalue = -0.5"] ;
23 -> 47 ;
48 [label="GROUND_WATERLEVEL <= -0.5\nmse = 0.0\nsamples = 3\nvalue = -0.4"] ;
47 -> 48 ;
49 [label="mse = 0.0\nsamples = 1\nvalue = -0.4"] ;
48 -> 49 ;
50 [label="mse = 0.0\nsamples = 2\nvalue = -0.4"] ;
48 -> 50 ;
51 [label="mse = 0.0\nsamples = 1\nvalue = -0.5"] ;
47 -> 51 ;
52 [label="AREA <= -0.5\nmse = 0.0\nsamples = 37\nvalue = -0.5"] ;
22 -> 52 ;
53 [label="AREA <= -0.5\nmse = 0.0\nsamples = 22\nvalue = -0.5"] ;
52 -> 53 ;
54 [label="AREA <= -0.5\nmse = 0.0\nsamples = 14\nvalue = -0.5"] ;
53 -> 54 ;
55 [label="mse = 0.0\nsamples = 1\nvalue = -0.5"] ;
54 -> 55 ;
56 [label="GROUND_WATERLEVEL <= 0.8\nmse = 0.0\nsamples = 13\nvalue = -0.5"] ;
54 -> 56 ;
57 [label="AVG_TEMPERATURE <= -0.9\nmse = 0.0\nsamples = 7\nvalue = -0.5"] ;
56 -> 57 ;
58 [label="HUMIDITY <= -0.6\nmse = 0.0\nsamples = 2\nvalue = -0.5"] ;
57 -> 58 ;
59 [label="mse = 0.0\nsamples = 1\nvalue = -0.5"] ;
58 -> 59 ;
60 [label="mse = -0.0\nsamples = 1\nvalue = -0.5"] ;
58 -> 60 ;
61 [label="HUMIDITY <= -0.4\nmse = 0.0\nsamples = 5\nvalue = -0.5"] ;
57 -> 61 ;
62 [label="mse = 0.0\nsamples = 1\nvalue = -0.5"] ;
61 -> 62 ;
63 [label="AREA <= -0.5\nmse = 0.0\nsamples = 4\nvalue = -0.5"] ;
61 -> 63 ;
64 [label="mse = 0.0\nsamples = 3\nvalue = -0.5"] ;
63 -> 64 ;
65 [label="mse = -0.0\nsamples = 1\nvalue = -0.5"] ;
63 -> 65 ;
66 [label="RAINFALL <= -0.4\nmse = 0.0\nsamples = 6\nvalue = -0.5"] ;
56 -> 66 ;
67 [label="HUMIDITY <= -1.0\nmse = 0.0\nsamples = 5\nvalue = -0.5"] ;
66 -> 67 ;
68 [label="mse = 0.0\nsamples = 1\nvalue = -0.5"] ;
67 -> 68 ;
69 [label="AREA <= -0.5\nmse = 0.0\nsamples = 4\nvalue = -0.5"] ;
67 -> 69 ;
70 [label="mse = 0.0\nsamples = 1\nvalue = -0.5"] ;
69 -> 70 ;
71 [label="mse = 0.0\nsamples = 3\nvalue = -0.5"] ;
69 -> 71 ;
72 [label="mse = -0.0\nsamples = 1\nvalue = -0.5"] ;
66 -> 72 ;
73 [label="AREA <= -0.5\nmse = 0.0\nsamples = 8\nvalue = -0.5"] ;
53 -> 73 ;
74 [label="AREA <= -0.5\nmse = 0.0\nsamples = 2\nvalue = -0.5"] ;
73 -> 74 ;
75 [label="mse = 0.0\nsamples = 1\nvalue = -0.5"] ;
74 -> 75 ;
76 [label="mse = -0.0\nsamples = 1\nvalue = -0.5"] ;
74 -> 76 ;
77 [label="RAINFALL <= -0.3\nmse = 0.0\nsamples = 6\nvalue = -0.5"] ;
73 -> 77 ;
78 [label="RAINFALL <= -1.0\nmse = 0.0\nsamples = 4\nvalue = -0.5"] ;
77 -> 78 ;
79 [label="mse = 0.0\nsamples = 1\nvalue = -0.5"] ;
78 -> 79 ;
80 [label="RAINFALL <= -1.0\nmse = 0.0\nsamples = 3\nvalue = -0.5"] ;
78 -> 80 ;
81 [label="mse = 0.0\nsamples = 1\nvalue = -0.5"] ;
80 -> 81 ;
82 [label="AREA <= -0.5\nmse = 0.0\nsamples = 2\nvalue = -0.5"] ;
80 -> 82 ;
83 [label="mse = 0.0\nsamples = 1\nvalue = -0.5"] ;
82 -> 83 ;
84 [label="mse = -0.0\nsamples = 1\nvalue = -0.5"] ;
82 -> 84 ;
85 [label="AREA <= -0.5\nmse = 0.0\nsamples = 2\nvalue = -0.5"] ;
77 -> 85 ;
86 [label="mse = 0.0\nsamples = 1\nvalue = -0.5"] ;
85 -> 86 ;
87 [label="mse = -0.0\nsamples = 1\nvalue = -0.5"] ;
85 -> 87 ;
88 [label="GROUND_WATERLEVEL <= -0.6\nmse = 0.0\nsamples = 15\nvalue = -0.5"] ;
52 -> 88 ;
89 [label="GROUND_WATERLEVEL <= -1.2\nmse = 0.0\nsamples = 7\nvalue = -0.5"] ;
88 -> 89 ;
90 [label="mse = 0.0\nsamples = 1\nvalue = -0.5"] ;
89 -> 90 ;
91 [label="HUMIDITY <= -0.9\nmse = 0.0\nsamples = 6\nvalue = -0.5"] ;
89 -> 91 ;
92 [label="mse = 0.0\nsamples = 1\nvalue = -0.5"] ;
91 -> 92 ;
93 [label="RAINFALL <= 1.0\nmse = 0.0\nsamples = 5\nvalue = -0.5"] ;
91 -> 93 ;
94 [label="AREA <= -0.5\nmse = 0.0\nsamples = 4\nvalue = -0.5"] ;
93 -> 94 ;
95 [label="mse = 0.0\nsamples = 1\nvalue = -0.5"] ;
94 -> 95 ;
96 [label="RAINFALL <= -0.3\nmse = 0.0\nsamples = 3\nvalue = -0.5"] ;
94 -> 96 ;
97 [label="AREA <= -0.5\nmse = 0.0\nsamples = 2\nvalue = -0.5"] ;
96 -> 97 ;
98 [label="mse = 0.0\nsamples = 1\nvalue = -0.5"] ;
97 -> 98 ;
99 [label="mse = -0.0\nsamples = 1\nvalue = -0.5"] ;
97 -> 99 ;
100 [label="mse = -0.0\nsamples = 1\nvalue = -0.5"] ;
96 -> 100 ;
101 [label="mse = -0.0\nsamples = 1\nvalue = -0.5"] ;
93 -> 101 ;
102 [label="AREA <= -0.5\nmse = 0.0\nsamples = 8\nvalue = -0.5"] ;
88 -> 102 ;
103 [label="HUMIDITY <= -0.3\nmse = 0.0\nsamples = 3\nvalue = -0.5"] ;
102 -> 103 ;
104 [label="mse = 0.0\nsamples = 2\nvalue = -0.5"] ;
103 -> 104 ;
105 [label="mse = -0.0\nsamples = 1\nvalue = -0.5"] ;
103 -> 105 ;
106 [label="AREA <= -0.5\nmse = 0.0\nsamples = 5\nvalue = -0.5"] ;
102 -> 106 ;
107 [label="GROUND_WATERLEVEL <= 0.1\nmse = 0.0\nsamples = 4\nvalue = -0.5"] ;
106 -> 107 ;
108 [label="mse = 0.0\nsamples = 2\nvalue = -0.5"] ;
107 -> 108 ;
109 [label="GROUND_WATERLEVEL <= 0.6\nmse = 0.0\nsamples = 2\nvalue = -0.5"] ;
107 -> 109 ;
110 [label="mse = 0.0\nsamples = 1\nvalue = -0.5"] ;
109 -> 110 ;
111 [label="mse = 0.0\nsamples = 1\nvalue = -0.5"] ;
109 -> 111 ;
112 [label="mse = -0.0\nsamples = 1\nvalue = -0.5"] ;
106 -> 112 ;
113 [label="AVG_TEMPERATURE <= 1.0\nmse = 0.0\nsamples = 11\nvalue = -0.5"] ;
3 -> 113 ;
114 [label="GROUND_WATERLEVEL <= -0.5\nmse = 0.0\nsamples = 7\nvalue = -0.5"] ;
113 -> 114 ;
115 [label="AREA <= -0.4\nmse = 0.0\nsamples = 2\nvalue = -0.5"] ;
114 -> 115 ;
116 [label="mse = 0.0\nsamples = 1\nvalue = -0.5"] ;
115 -> 116 ;
117 [label="mse = 0.0\nsamples = 1\nvalue = -0.5"] ;
115 -> 117 ;
118 [label="AREA <= -0.4\nmse = 0.0\nsamples = 5\nvalue = -0.5"] ;
114 -> 118 ;
119 [label="GROUND_WATERLEVEL <= 0.2\nmse = 0.0\nsamples = 4\nvalue = -0.5"] ;
118 -> 119 ;
120 [label="AREA <= -0.4\nmse = 0.0\nsamples = 2\nvalue = -0.5"] ;
119 -> 120 ;
121 [label="mse = 0.0\nsamples = 1\nvalue = -0.5"] ;
120 -> 121 ;
122 [label="mse = 0.0\nsamples = 1\nvalue = -0.5"] ;
120 -> 122 ;
123 [label="AVG_TEMPERATURE <= 0.8\nmse = 0.0\nsamples = 2\nvalue = -0.5"] ;
119 -> 123 ;
124 [label="mse = 0.0\nsamples = 1\nvalue = -0.5"] ;
123 -> 124 ;
125 [label="mse = -0.0\nsamples = 1\nvalue = -0.5"] ;
123 -> 125 ;
126 [label="mse = 0.0\nsamples = 1\nvalue = -0.5"] ;
118 -> 126 ;
127 [label="RAINFALL <= 0.5\nmse = 0.0\nsamples = 4\nvalue = -0.5"] ;
113 -> 127 ;
128 [label="mse = 0.0\nsamples = 1\nvalue = -0.5"] ;
127 -> 128 ;
129 [label="AVG_TEMPERATURE <= 1.1\nmse = 0.0\nsamples = 3\nvalue = -0.5"] ;
127 -> 129 ;
130 [label="mse = 0.0\nsamples = 1\nvalue = -0.5"] ;
129 -> 130 ;
131 [label="AVG_TEMPERATURE <= 1.3\nmse = 0.0\nsamples = 2\nvalue = -0.5"] ;
129 -> 131 ;
132 [label="mse = 0.0\nsamples = 1\nvalue = -0.5"] ;
131 -> 132 ;
133 [label="mse = 0.0\nsamples = 1\nvalue = -0.5"] ;
131 -> 133 ;
134 [label="AVG_TEMPERATURE <= -0.8\nmse = 0.0\nsamples = 13\nvalue = -0.4"] ;
2 -> 134 ;
135 [label="AREA <= -0.3\nmse = 0.0\nsamples = 5\nvalue = -0.4"] ;
134 -> 135 ;
136 [label="AVG_TEMPERATURE <= -1.2\nmse = 0.0\nsamples = 4\nvalue = -0.4"] ;
135 -> 136 ;
137 [label="mse = 0.0\nsamples = 1\nvalue = -0.4"] ;
136 -> 137 ;
138 [label="AVG_TEMPERATURE <= -0.9\nmse = 0.0\nsamples = 3\nvalue = -0.4"] ;
136 -> 138 ;
139 [label="RAINFALL <= -1.0\nmse = 0.0\nsamples = 2\nvalue = -0.4"] ;
138 -> 139 ;
140 [label="mse = 0.0\nsamples = 1\nvalue = -0.4"] ;
139 -> 140 ;
141 [label="mse = 0.0\nsamples = 1\nvalue = -0.4"] ;
139 -> 141 ;
142 [label="mse = -0.0\nsamples = 1\nvalue = -0.4"] ;
138 -> 142 ;
143 [label="mse = 0.0\nsamples = 1\nvalue = -0.3"] ;
135 -> 143 ;
144 [label="HUMIDITY <= 0.6\nmse = 0.0\nsamples = 8\nvalue = -0.5"] ;
134 -> 144 ;
145 [label="AREA <= -0.2\nmse = 0.0\nsamples = 4\nvalue = -0.4"] ;
144 -> 145 ;
146 [label="AREA <= -0.3\nmse = 0.0\nsamples = 3\nvalue = -0.4"] ;
145 -> 146 ;
147 [label="GROUND_WATERLEVEL <= -0.2\nmse = 0.0\nsamples = 2\nvalue = -0.4"] ;
146 -> 147 ;
148 [label="mse = 0.0\nsamples = 1\nvalue = -0.5"] ;
147 -> 148 ;
149 [label="mse = -0.0\nsamples = 1\nvalue = -0.4"] ;
147 -> 149 ;
150 [label="mse = -0.0\nsamples = 1\nvalue = -0.4"] ;
146 -> 150 ;
151 [label="mse = 0.0\nsamples = 1\nvalue = -0.5"] ;
145 -> 151 ;
152 [label="AREA <= -0.3\nmse = 0.0\nsamples = 4\nvalue = -0.5"] ;
144 -> 152 ;
153 [label="RAINFALL <= 1.1\nmse = 0.0\nsamples = 2\nvalue = -0.5"] ;
152 -> 153 ;
154 [label="mse = 0.0\nsamples = 1\nvalue = -0.5"] ;
153 -> 154 ;
155 [label="mse = -0.0\nsamples = 1\nvalue = -0.5"] ;
153 -> 155 ;
156 [label="HUMIDITY <= 1.0\nmse = 0.0\nsamples = 2\nvalue = -0.5"] ;
152 -> 156 ;
157 [label="mse = -0.0\nsamples = 1\nvalue = -0.5"] ;
156 -> 157 ;
158 [label="mse = 0.0\nsamples = 1\nvalue = -0.5"] ;
156 -> 158 ;
159 [label="HUMIDITY <= -0.6\nmse = 0.1\nsamples = 10\nvalue = 0.3"] ;
1 -> 159 ;
160 [label="GROUND_WATERLEVEL <= 0.6\nmse = 0.0\nsamples = 7\nvalue = 0.4"] ;
159 -> 160 ;
161 [label="AREA <= 0.1\nmse = 0.0\nsamples = 4\nvalue = 0.6"] ;
160 -> 161 ;
162 [label="mse = 0.0\nsamples = 1\nvalue = 0.4"] ;
161 -> 162 ;
163 [label="AVG_TEMPERATURE <= -0.9\nmse = 0.0\nsamples = 3\nvalue = 0.6"] ;
161 -> 163 ;
164 [label="mse = 0.0\nsamples = 1\nvalue = 0.7"] ;
163 -> 164 ;
165 [label="AVG_TEMPERATURE <= -0.7\nmse = 0.0\nsamples = 2\nvalue = 0.6"] ;
163 -> 165 ;
166 [label="mse = 0.0\nsamples = 1\nvalue = 0.6"] ;
165 -> 166 ;
167 [label="mse = -0.0\nsamples = 1\nvalue = 0.6"] ;
165 -> 167 ;
168 [label="AREA <= 0.0\nmse = 0.0\nsamples = 3\nvalue = 0.3"] ;
160 -> 168 ;
169 [label="mse = 0.0\nsamples = 1\nvalue = 0.3"] ;
168 -> 169 ;
170 [label="RAINFALL <= -1.0\nmse = 0.0\nsamples = 2\nvalue = 0.3"] ;
168 -> 170 ;
171 [label="mse = 0.0\nsamples = 1\nvalue = 0.3"] ;
170 -> 171 ;
172 [label="mse = -0.0\nsamples = 1\nvalue = 0.3"] ;
170 -> 172 ;
173 [label="GROUND_WATERLEVEL <= 0.6\nmse = 0.0\nsamples = 3\nvalue = 0.0"] ;
159 -> 173 ;
174 [label="mse = 0.0\nsamples = 1\nvalue = -0.1"] ;
173 -> 174 ;
175 [label="HUMIDITY <= 0.0\nmse = 0.0\nsamples = 2\nvalue = 0.1"] ;
173 -> 175 ;
176 [label="mse = 0.0\nsamples = 1\nvalue = 0.1"] ;
175 -> 176 ;
177 [label="mse = -0.0\nsamples = 1\nvalue = 0.1"] ;
175 -> 177 ;
178 [label="AREA <= 1.5\nmse = 0.7\nsamples = 26\nvalue = 1.5"] ;
0 -> 178 [labeldistance=2.5, labelangle=-45, headlabel="False"] ;
179 [label="HUMIDITY <= 1.2\nmse = 0.1\nsamples = 14\nvalue = 0.9"] ;
178 -> 179 ;
180 [label="GROUND_WATERLEVEL <= 0.8\nmse = 0.1\nsamples = 12\nvalue = 1.0"] ;
179 -> 180 ;
181 [label="AVG_TEMPERATURE <= 1.2\nmse = 0.0\nsamples = 9\nvalue = 1.1"] ;
180 -> 181 ;
182 [label="GROUND_WATERLEVEL <= 0.2\nmse = 0.0\nsamples = 7\nvalue = 1.2"] ;
181 -> 182 ;
183 [label="RAINFALL <= -0.3\nmse = 0.0\nsamples = 5\nvalue = 1.1"] ;
182 -> 183 ;
184 [label="RAINFALL <= -0.9\nmse = 0.0\nsamples = 3\nvalue = 1.2"] ;
183 -> 184 ;
185 [label="AREA <= 0.5\nmse = 0.0\nsamples = 2\nvalue = 1.1"] ;
184 -> 185 ;
186 [label="mse = 0.0\nsamples = 1\nvalue = 1.1"] ;
185 -> 186 ;
187 [label="mse = -0.0\nsamples = 1\nvalue = 1.1"] ;
185 -> 187 ;
188 [label="mse = 0.0\nsamples = 1\nvalue = 1.2"] ;
184 -> 188 ;
189 [label="RAINFALL <= 0.7\nmse = 0.0\nsamples = 2\nvalue = 1.0"] ;
183 -> 189 ;
190 [label="mse = 0.0\nsamples = 1\nvalue = 1.0"] ;
189 -> 190 ;
191 [label="mse = 0.0\nsamples = 1\nvalue = 1.1"] ;
189 -> 191 ;
192 [label="HUMIDITY <= -0.2\nmse = 0.0\nsamples = 2\nvalue = 1.3"] ;
182 -> 192 ;
193 [label="mse = 0.0\nsamples = 1\nvalue = 1.3"] ;
192 -> 193 ;
194 [label="mse = -0.0\nsamples = 1\nvalue = 1.2"] ;
192 -> 194 ;
195 [label="GROUND_WATERLEVEL <= -0.9\nmse = 0.0\nsamples = 2\nvalue = 0.9"] ;
181 -> 195 ;
196 [label="mse = 0.0\nsamples = 1\nvalue = 1.0"] ;
195 -> 196 ;
197 [label="mse = 0.0\nsamples = 1\nvalue = 0.9"] ;
195 -> 197 ;
198 [label="AREA <= 1.2\nmse = 0.0\nsamples = 3\nvalue = 0.6"] ;
180 -> 198 ;
199 [label="GROUND_WATERLEVEL <= 1.3\nmse = 0.0\nsamples = 2\nvalue = 0.6"] ;
198 -> 199 ;
200 [label="mse = 0.0\nsamples = 1\nvalue = 0.6"] ;
199 -> 200 ;
201 [label="mse = -0.0\nsamples = 1\nvalue = 0.7"] ;
199 -> 201 ;
202 [label="mse = -0.0\nsamples = 1\nvalue = 0.2"] ;
198 -> 202 ;
203 [label="AREA <= 0.4\nmse = 0.0\nsamples = 2\nvalue = 0.5"] ;
179 -> 203 ;
204 [label="mse = 0.0\nsamples = 1\nvalue = 0.4"] ;
203 -> 204 ;
205 [label="mse = -0.0\nsamples = 1\nvalue = 0.6"] ;
203 -> 205 ;
206 [label="AVG_TEMPERATURE <= -0.9\nmse = 0.4\nsamples = 12\nvalue = 2.2"] ;
178 -> 206 ;
207 [label="AREA <= 2.9\nmse = 0.1\nsamples = 2\nvalue = 3.4"] ;
206 -> 207 ;
208 [label="mse = 0.0\nsamples = 1\nvalue = 3.1"] ;
207 -> 208 ;
209 [label="mse = 0.0\nsamples = 1\nvalue = 3.8"] ;
207 -> 209 ;
210 [label="AREA <= 3.1\nmse = 0.2\nsamples = 10\nvalue = 2.1"] ;
206 -> 210 ;
211 [label="AREA <= 2.1\nmse = 0.2\nsamples = 9\nvalue = 2.2"] ;
210 -> 211 ;
212 [label="AVG_TEMPERATURE <= 0.6\nmse = 0.2\nsamples = 5\nvalue = 1.9"] ;
211 -> 212 ;
213 [label="GROUND_WATERLEVEL <= 1.3\nmse = 0.1\nsamples = 4\nvalue = 2.0"] ;
212 -> 213 ;
214 [label="AREA <= 1.6\nmse = 0.0\nsamples = 3\nvalue = 1.9"] ;
213 -> 214 ;
215 [label="mse = 0.0\nsamples = 1\nvalue = 1.8"] ;
214 -> 215 ;
216 [label="GROUND_WATERLEVEL <= -0.8\nmse = 0.0\nsamples = 2\nvalue = 1.9"] ;
214 -> 216 ;
217 [label="mse = 0.0\nsamples = 1\nvalue = 2.0"] ;
216 -> 217 ;
218 [label="mse = 0.0\nsamples = 1\nvalue = 1.9"] ;
216 -> 218 ;
219 [label="mse = -0.0\nsamples = 1\nvalue = 2.5"] ;
213 -> 219 ;
220 [label="mse = 0.0\nsamples = 1\nvalue = 1.3"] ;
212 -> 220 ;
221 [label="AVG_TEMPERATURE <= 0.0\nmse = 0.0\nsamples = 4\nvalue = 2.5"] ;
211 -> 221 ;
222 [label="mse = 0.0\nsamples = 1\nvalue = 2.5"] ;
221 -> 222 ;
223 [label="HUMIDITY <= 1.1\nmse = 0.0\nsamples = 3\nvalue = 2.4"] ;
221 -> 223 ;
224 [label="mse = 0.0\nsamples = 1\nvalue = 2.3"] ;
223 -> 224 ;
225 [label="AREA <= 2.4\nmse = 0.0\nsamples = 2\nvalue = 2.4"] ;
223 -> 225 ;
226 [label="mse = 0.0\nsamples = 1\nvalue = 2.4"] ;
225 -> 226 ;
227 [label="mse = 0.0\nsamples = 1\nvalue = 2.4"] ;
225 -> 227 ;
228 [label="mse = -0.0\nsamples = 1\nvalue = 1.1"] ;
210 -> 228 ;
}